<?xml version="1.0"?>
<opencv_storage>
<cascade>
  <stageType>BOOST</stageType>
  <featureType>HAAR</featureType>
  <height>40</height>
  <width>40</width>
  <stageParams>
    <boostType>RAB</boostType>
    <minHitRate>9.9900001287460327e-01</minHitRate>
    <maxFalseAlarm>5.0000000745058060e-02</maxFalseAlarm>
    <weightTrimRate>9.4999999999999996e-01</weightTrimRate>
    <maxDepth>1</maxDepth>
    <maxWeakCount>100</maxWeakCount></stageParams>
  <featureParams>
    <maxCatCount>0</maxCatCount>
    <featSize>1</featSize>
    <mode>ALL</mode></featureParams>
  <stageNum>4</stageNum>
  <stages>
    <!-- stage 0 -->
    <_>
      <maxWeakCount>2</maxWeakCount>
      <stageThreshold>-8.3517879247665405e-02</stageThreshold>
      <weakClassifiers>
        <_>
          <internalNodes>
            0 -1 2 -4.9718388915061951e-01</internalNodes>
          <leafValues>
            2.5036482810974121e+00 -3.5442044734954834e+00</leafValues></_>
        <_>
          <internalNodes>
            0 -1 0 -1.3073518872261047e-01</internalNodes>
          <leafValues>
            3.4606864452362061e+00 -2.3947842121124268e+00</leafValues></_></weakClassifiers></_>
    <!-- stage 1 -->
    <_>
      <maxWeakCount>2</maxWeakCount>
      <stageThreshold>-7.9538899660110474e-01</stageThreshold>
      <weakClassifiers>
        <_>
          <internalNodes>
            0 -1 2 -7.3384916782379150e-01</internalNodes>
          <leafValues>
            1.6921951770782471e+00 -2.7361352443695068e+00</leafValues></_>
        <_>
          <internalNodes>
            0 -1 10 -4.7335572540760040e-02</internalNodes>
          <leafValues>
            -1.5584568977355957e+00 1.9407463073730469e+00</leafValues></_></weakClassifiers></_>
    <!-- stage 2 -->
    <_>
      <maxWeakCount>7</maxWeakCount>
      <stageThreshold>-1.3987383842468262e+00</stageThreshold>
      <weakClassifiers>
        <_>
          <internalNodes>
            0 -1 14 -1.3539611361920834e-02</internalNodes>
          <leafValues>
            -1.5501295328140259e+00 2.7526657581329346e+00</leafValues></_>
        <_>
          <internalNodes>
            0 -1 9 -2.0233942195773125e-02</internalNodes>
          <leafValues>
            -1.5454921722412109e+00 6.8057167530059814e-01</leafValues></_>
        <_>
          <internalNodes>
            0 -1 12 -1.3017180562019348e-01</internalNodes>
          <leafValues>
            6.1466521024703979e-01 -1.1643624305725098e+00</leafValues></_>
        <_>
          <internalNodes>
            0 -1 1 -2.0499226450920105e-01</internalNodes>
          <leafValues>
            1.2971632480621338e+00 -5.8334064483642578e-01</leafValues></_>
        <_>
          <internalNodes>
            0 -1 15 -2.0114794373512268e-02</internalNodes>
          <leafValues>
            -1.5142923593521118e+00 4.9595090746879578e-01</leafValues></_>
        <_>
          <internalNodes>
            0 -1 18 1.3179243542253971e-02</internalNodes>
          <leafValues>
            -2.0864377021789551e+00 4.7937840223312378e-01</leafValues></_>
        <_>
          <internalNodes>
            0 -1 8 2.9266618192195892e-02</internalNodes>
          <leafValues>
            -7.8180027008056641e-01 6.9022935628890991e-01</leafValues></_></weakClassifiers></_>
    <!-- stage 3 -->
    <_>
      <maxWeakCount>13</maxWeakCount>
      <stageThreshold>-1.0867651700973511e+00</stageThreshold>
      <weakClassifiers>
        <_>
          <internalNodes>
            0 -1 13 -1.0896548628807068e-03</internalNodes>
          <leafValues>
            -1.3485789299011230e+00 1.4143390655517578e+00</leafValues></_>
        <_>
          <internalNodes>
            0 -1 2 -9.2897653579711914e-01</internalNodes>
          <leafValues>
            7.4239826202392578e-01 -4.0392309427261353e-01</leafValues></_>
        <_>
          <internalNodes>
            0 -1 3 7.7684957068413496e-04</internalNodes>
          <leafValues>
            2.5410035252571106e-01 -1.0906614065170288e+00</leafValues></_>
        <_>
          <internalNodes>
            0 -1 5 2.0100466907024384e-02</internalNodes>
          <leafValues>
            -5.0672775506973267e-01 5.3066450357437134e-01</leafValues></_>
        <_>
          <internalNodes>
            0 -1 19 8.5078962147235870e-03</internalNodes>
          <leafValues>
            -6.4074033498764038e-01 3.9358937740325928e-01</leafValues></_>
        <_>
          <internalNodes>
            0 -1 7 5.9953168965876102e-03</internalNodes>
          <leafValues>
            -6.7620557546615601e-01 3.5194814205169678e-01</leafValues></_>
        <_>
          <internalNodes>
            0 -1 11 -5.8436959981918335e-02</internalNodes>
          <leafValues>
            7.5985836982727051e-01 -3.0964142084121704e-01</leafValues></_>
        <_>
          <internalNodes>
            0 -1 16 -1.2954256962984800e-03</internalNodes>
          <leafValues>
            -6.2811750173568726e-01 4.1173338890075684e-01</leafValues></_>
        <_>
          <internalNodes>
            0 -1 21 7.6137394644320011e-03</internalNodes>
          <leafValues>
            -1.6164506673812866e+00 2.1449498832225800e-01</leafValues></_>
        <_>
          <internalNodes>
            0 -1 6 3.5423450171947479e-03</internalNodes>
          <leafValues>
            2.2697755694389343e-01 -1.3514000177383423e+00</leafValues></_>
        <_>
          <internalNodes>
            0 -1 17 -1.0099420323967934e-03</internalNodes>
          <leafValues>
            -1.3086937665939331e+00 1.7704269289970398e-01</leafValues></_>
        <_>
          <internalNodes>
            0 -1 4 -7.9963626340031624e-03</internalNodes>
          <leafValues>
            2.8260087966918945e-01 -7.0141369104385376e-01</leafValues></_>
        <_>
          <internalNodes>
            0 -1 20 3.5510035231709480e-03</internalNodes>
          <leafValues>
            2.0394831895828247e-01 -1.0800743103027344e+00</leafValues></_></weakClassifiers></_></stages>
  <features>
    <_>
      <rects>
        <_>
          0 9 40 26 -1.</_>
        <_>
          10 9 20 26 2.</_></rects>
      <tilted>0</tilted></_>
    <_>
      <rects>
        <_>
          0 14 40 20 -1.</_>
        <_>
          10 14 20 20 2.</_></rects>
      <tilted>0</tilted></_>
    <_>
      <rects>
        <_>
          1 1 39 39 -1.</_>
        <_>
          14 14 13 13 9.</_></rects>
      <tilted>0</tilted></_>
    <_>
      <rects>
        <_>
          2 0 14 6 -1.</_>
        <_>
          2 3 14 3 2.</_></rects>
      <tilted>0</tilted></_>
    <_>
      <rects>
        <_>
          2 17 16 3 -1.</_>
        <_>
          10 17 8 3 2.</_></rects>
      <tilted>0</tilted></_>
    <_>
      <rects>
        <_>
          4 10 14 4 -1.</_>
        <_>
          4 10 7 4 2.</_></rects>
      <tilted>1</tilted></_>
    <_>
      <rects>
        <_>
          4 29 4 4 -1.</_>
        <_>
          4 29 4 2 2.</_></rects>
      <tilted>1</tilted></_>
    <_>
      <rects>
        <_>
          7 1 8 7 -1.</_>
        <_>
          7 1 4 7 2.</_></rects>
      <tilted>1</tilted></_>
    <_>
      <rects>
        <_>
          7 28 15 12 -1.</_>
        <_>
          7 34 15 6 2.</_></rects>
      <tilted>0</tilted></_>
    <_>
      <rects>
        <_>
          11 17 16 3 -1.</_>
        <_>
          11 18 16 1 2.</_></rects>
      <tilted>0</tilted></_>
    <_>
      <rects>
        <_>
          12 22 21 6 -1.</_>
        <_>
          12 24 21 2 2.</_></rects>
      <tilted>0</tilted></_>
    <_>
      <rects>
        <_>
          13 16 17 24 -1.</_>
        <_>
          13 22 17 12 2.</_></rects>
      <tilted>0</tilted></_>
    <_>
      <rects>
        <_>
          15 0 16 40 -1.</_>
        <_>
          15 10 16 20 2.</_></rects>
      <tilted>0</tilted></_>
    <_>
      <rects>
        <_>
          18 19 6 3 -1.</_>
        <_>
          18 20 6 1 2.</_></rects>
      <tilted>0</tilted></_>
    <_>
      <rects>
        <_>
          19 9 3 17 -1.</_>
        <_>
          20 9 1 17 2.</_></rects>
      <tilted>0</tilted></_>
    <_>
      <rects>
        <_>
          19 12 3 17 -1.</_>
        <_>
          20 12 1 17 2.</_></rects>
      <tilted>0</tilted></_>
    <_>
      <rects>
        <_>
          24 14 3 8 -1.</_>
        <_>
          24 18 3 4 2.</_></rects>
      <tilted>0</tilted></_>
    <_>
      <rects>
        <_>
          27 17 4 9 -1.</_>
        <_>
          29 17 2 9 2.</_></rects>
      <tilted>0</tilted></_>
    <_>
      <rects>
        <_>
          28 18 12 17 -1.</_>
        <_>
          34 18 6 17 2.</_></rects>
      <tilted>0</tilted></_>
    <_>
      <rects>
        <_>
          30 2 10 14 -1.</_>
        <_>
          35 2 5 14 2.</_></rects>
      <tilted>0</tilted></_>
    <_>
      <rects>
        <_>
          34 0 5 10 -1.</_>
        <_>
          34 5 5 5 2.</_></rects>
      <tilted>0</tilted></_>
    <_>
      <rects>
        <_>
          38 0 1 20 -1.</_>
        <_>
          38 0 1 10 2.</_></rects>
      <tilted>1</tilted></_></features></cascade>
</opencv_storage>
